<?xml version="1.0"?>
<opencv_storage>
<stage4>
  <maxWeakCount>9</maxWeakCount>
  <stageThreshold>-1.1253015995025635e+00</stageThreshold>
  <weakClassifiers>
    <_>
      <internalNodes>
        0 -1 11560 -7.5120395049452782e-03</internalNodes>
      <leafValues>
        1. -5.8550393581390381e-01</leafValues></_>
    <_>
      <internalNodes>
        0 -1 58463 -7.0214807055890560e-03</internalNodes>
      <leafValues>
        8.4553039073944092e-01 -2.7936139702796936e-01</leafValues></_>
    <_>
      <internalNodes>
        0 -1 69488 -7.1302317082881927e-03</internalNodes>
      <leafValues>
        7.7419030666351318e-01 -2.3475259542465210e-01</leafValues></_>
    <_>
      <internalNodes>
        0 -1 61022 9.0371689293533564e-04</internalNodes>
      <leafValues>
        4.5437914133071899e-01 -5.7523590326309204e-01</leafValues></_>
    <_>
      <internalNodes>
        0 -1 17416 5.5809572339057922e-02</internalNodes>
      <leafValues>
        2.9767462611198425e-01 -7.7129691839218140e-01</leafValues></_>
    <_>
      <internalNodes>
        0 -1 14721 -3.4984605008503422e-05</internalNodes>
      <leafValues>
        9.0044969320297241e-01 -3.6740404367446899e-01</leafValues></_>
    <_>
      <internalNodes>
        0 -1 54707 -1.4261228963732719e-02</internalNodes>
      <leafValues>
        -6.3241046667098999e-01 4.2351073026657104e-01</leafValues></_>
    <_>
      <internalNodes>
        0 -1 62211 2.7154856361448765e-03</internalNodes>
      <leafValues>
        -2.7218750119209290e-01 1.</leafValues></_>
    <_>
      <internalNodes>
        0 -1 54081 1.0095710866153240e-02</internalNodes>
      <leafValues>
        -2.6484027504920959e-01 8.5761612653732300e-01</leafValues></_></weakClassifiers></stage4>
</opencv_storage>
